{"inputs":[[1.0,1.0,1.0,1.0,0.0,1.0,1.0,0.0,1.0,1.0,0.0,1.0,1.0,1.0,1.0],[0.0,0.0,1.0,0.0,1.0,1.0,1.0,0.0,1.0,0.0,0.0,1.0,0.0,0.0,1.0],[1.0,1.0,1.0,1.0,0.0,1.0,0.0,1.0,0.0,1.0,0.0,0.0,1.0,1.0,1.0],[1.0,1.0,1.0,0.0,0.0,1.0,1.0,1.0,1.0,0.0,0.0,1.0,1.0,1.0,1.0],[1.0,0.0,1.0,1.0,0.0,1.0,1.0,1.0,1.0,0.0,0.0,1.0,0.0,0.0,1.0],[1.0,1.0,1.0,1.0,1.0,0.0,1.0,1.0,1.0,0.0,0.0,1.0,1.0,1.0,1.0],[1.0,1.0,1.0,1.0,0.0,0.0,1.0,1.0,1.0,1.0,0.0,1.0,1.0,1.0,1.0],[1.0,1.0,1.0,0.0,0.0,1.0,0.0,0.0,1.0,0.0,0.0,1.0,0.0,0.0,1.0],[1.0,1.0,1.0,1.0,0.0,1.0,1.0,1.0,1.0,1.0,0.0,1.0,1.0,1.0,1.0],[1.0,1.0,1.0,1.0,0.0,1.0,1.0,1.0,1.0,0.0,0.0,1.0,1.0,1.0,1.0]],"outputs":[[1.0,0.0,0.0,0.0,0.0,0.0,0.0,0.0,0.0,0.0],[0.0,1.0,0.0,0.0,0.0,0.0,0.0,0.0,0.0,0.0],[0.0,0.0,1.0,0.0,0.0,0.0,0.0,0.0,0.0,0.0],[0.0,0.0,0.0,1.0,0.0,0.0,0.0,0.0,0.0,0.0],[0.0,0.0,0.0,0.0,1.0,0.0,0.0,0.0,0.0,0.0],[0.0,0.0,0.0,0.0,0.0,1.0,0.0,0.0,0.0,0.0],[0.0,0.0,0.0,0.0,0.0,0.0,1.0,0.0,0.0,0.0],[0.0,0.0,0.0,0.0,0.0,0.0,0.0,1.0,0.0,0.0],[0.0,0.0,0.0,0.0,0.0,0.0,0.0,0.0,1.0,0.0],[0.0,0.0,0.0,0.0,0.0,0.0,0.0,0.0,0.0,1.0]],"nodesInLayers":[15,15,10],"activationFunction":"unipolar","neuronLayers":[[{"inputs":[1.0,1.0,1.0,1.0,0.0,1.0,1.0,1.0,1.0,0.0,0.0,1.0,1.0,1.0,1.0],"weights":[{"value":-0.5360049863204644},{"value":-0.3753721960457939},{"value":0.11845239645083806},{"value":0.5604313773765925},{"value":-2.6346115145706097},{"value":-1.3220586049992538},{"value":0.2175365217048746},{"value":3.3971123250334876},{"value":1.43972558279625},{"value":2.4369956377922244},{"value":0.41245608906123366},{"value":1.809198759572959},{"value":-3.1045475793819683},{"value":-2.557509126667716},{"value":-0.53814524716103}],"bias":0.0019356833390801042,"output":0.29127614697218995,"error":0.20643435317722514,"delta":-7.83191913894902E-6,"sum":-0.889194186827741},{"inputs":[1.0,1.0,1.0,1.0,0.0,1.0,1.0,1.0,1.0,0.0,0.0,1.0,1.0,1.0,1.0],"weights":[{"value":-0.5241336468804096},{"value":-0.1135850377053537},{"value":-0.4872001991267354},{"value":-1.9976052240051363},{"value":-0.7336805221028776},{"value":-0.2836108954620344},{"value":-0.39326891931354696},{"value":1.6681953812037977},{"value":1.2346826654517702},{"value":0.5340799524987446},{"value":-0.973141108050902},{"value":0.9881013907456254},{"value":-0.13202494190078662},{"value":0.7126085321435638},{"value":-0.9497794476280338}],"bias":0.1814672437901391,"output":0.4761774228246251,"error":0.24943248481672328,"delta":-1.2162872111247E-4,"sum":-0.09536251199990947},{"inputs":[1.0,1.0,1.0,1.0,0.0,1.0,1.0,1.0,1.0,0.0,0.0,1.0,1.0,1.0,1.0],"weights":[{"value":0.010618265686476107},{"value":0.8931174672007196},{"value":0.10185691648151185},{"value":0.012106281571411196},{"value":-0.07347319290358859},{"value":0.18974967005693902},{"value":0.058755154032852405},{"value":0.47344608070061805},{"value":-0.8066281204858632},{"value":0.21410627437115534},{"value":-0.33692646997440434},{"value":0.6478811443984684},{"value":0.9253784679282182},{"value":0.7038109876797185},{"value":-0.2961162982775642}],"bias":-0.33205428439899415,"output":0.9296605516224613,"error":0.06539181037948226,"delta":6.69224762690868E-5,"sum":2.5814867364787637},{"inputs":[1.0,1.0,1.0,1.0,0.0,1.0,1.0,1.0,1.0,0.0,0.0,1.0,1.0,1.0,1.0],"weights":[{"value":-0.05278418260239549},{"value":-1.0426866943584527},{"value":-0.06540508931569543},{"value":1.772282686579685},{"value":1.0609335843190866},{"value":1.1357559214441304},{"value":1.9430519847155778},{"value":-1.6342974580501444},{"value":-0.2836846290860582},{"value":-2.04252550776403},{"value":0.23487847341125812},{"value":-0.5578889548761689},{"value":0.9629389776640617},{"value":1.2949907486931502},{"value":-0.4436935005630401}],"bias":-0.9775672299715416,"output":0.8859658231444194,"error":0.10103038336445076,"delta":1.2806233604166674E-4,"sum":2.0501801750888378},{"inputs":[1.0,1.0,1.0,1.0,0.0,1.0,1.0,1.0,1.0,0.0,0.0,1.0,1.0,1.0,1.0],"weights":[{"value":-1.1293052342066794},{"value":-2.3945441982346787},{"value":-1.050137480987296},{"value":-0.5057052906307039},{"value":-0.37478015676842524},{"value":3.0236956468475014},{"value":2.9549961954822823},{"value":-0.09336515595144679},{"value":1.578451036494402},{"value":1.6957914741060942},{"value":-0.499239859011241},{"value":0.13385276768599774},{"value":0.10690989437249444},{"value":-0.11825788365025561},{"value":-0.9675141227975098}],"bias":-1.2185572946441745,"output":0.5794640963778178,"error":0.24368545738685687,"delta":-8.456297993870433E-6,"sum":0.3205738457168932},{"inputs":[1.0,1.0,1.0,1.0,0.0,1.0,1.0,1.0,1.0,0.0,0.0,1.0,1.0,1.0,1.0],"weights":[{"value":0.9957446365699896},{"value":1.1612414552614698},{"value":0.5036847172819651},{"value":-3.998913108188244},{"value":-0.43500389856356486},{"value":2.705335888966648},{"value":-1.6739318365318776},{"value":-1.3607651243436183},{"value":0.08987665344493506},{"value":3.4965364787232733},{"value":-0.7524321712090627},{"value":0.1699752881393359},{"value":0.7931204937257463},{"value":0.1878699814457923},{"value":-0.7272634529036218}],"bias":-0.6676143094954595,"output":0.13934341946403445,"error":0.1199268309161046,"delta":-1.3610502556725068E-4,"sum":-1.8207540339607515},{"inputs":[1.0,1.0,1.0,1.0,0.0,1.0,1.0,1.0,1.0,0.0,0.0,1.0,1.0,1.0,1.0],"weights":[{"value":0.04985183968272756},{"value":0.9920015966859697},{"value":-0.5681741792382219},{"value":0.5219233097490358},{"value":-0.9749687647730462},{"value":-2.0218588183524613},{"value":0.47997734932988956},{"value":-1.3578326348242136},{"value":0.06191454148124742},{"value":3.857184628750563},{"value":0.2944806975239973},{"value":1.4982936458037175},{"value":-0.28827298592040534},{"value":0.2555512831848132},{"value":-0.15826157689236178}],"bias":-1.613224537337644,"output":0.10452173476047603,"error":0.09359694172313673,"delta":-2.2808376593119667E-5,"sum":-2.147962912200052},{"inputs":[1.0,1.0,1.0,1.0,0.0,1.0,1.0,1.0,1.0,0.0,0.0,1.0,1.0,1.0,1.0],"weights":[{"value":0.056368142075009516},{"value":0.327974968478137},{"value":0.7436453496178335},{"value":-4.497173778681143},{"value":1.7641554475596213},{"value":-4.336425939763282},{"value":0.8469253746293758},{"value":1.9925517808108941},{"value":0.7622138313882632},{"value":-0.25772684623657516},{"value":-0.6827121823963174},{"value":0.8112453665508754},{"value":0.056447050610520834},{"value":1.052479362306176},{"value":-0.18112319479549013}],"bias":0.1472296095750429,"output":0.09825527544740642,"error":0.08860117629416071,"delta":-1.3531555278516118E-4,"sum":-2.2167625261046813},{"inputs":[1.0,1.0,1.0,1.0,0.0,1.0,1.0,1.0,1.0,0.0,0.0,1.0,1.0,1.0,1.0],"weights":[{"value":-1.1082860803015635},{"value":-0.3283527626628957},{"value":0.9962025909017646},{"value":0.9437775545341144},{"value":1.9747968087254686},{"value":-3.3223847782661826},{"value":1.594068556231102},{"value":-4.067918028318832},{"value":0.15673252477363478},{"value":0.2404649761628582},{"value":-0.5070196372664029},{"value":1.513946881260963},{"value":0.5556798658195156},{"value":0.17339455933733847},{"value":0.3188313456319879}],"bias":0.21721872440651258,"output":0.08651642310937735,"error":0.07903133164173655,"delta":-2.4293488367038615E-5,"sum":-2.356931138978154},{"inputs":[1.0,1.0,1.0,1.0,0.0,1.0,1.0,1.0,1.0,0.0,0.0,1.0,1.0,1.0,1.0],"weights":[{"value":-0.7422479744816133},{"value":1.0438217584300604},{"value":-0.8589612232266612},{"value":1.7364069354256968},{"value":1.0107147808118961},{"value":0.1263181726600422},{"value":-1.6511771671686246},{"value":2.0512780069553123},{"value":-2.0776647725569948},{"value":-0.2908115050242133},{"value":-0.03534355623601493},{"value":-1.0996345655698598},{"value":1.125085718115265},{"value":0.4755734742287982},{"value":-0.765157253074578}],"bias":1.0459930846299417,"output":0.6007863521485273,"error":0.23984211122059304,"delta":1.3716033283458245E-4,"sum":0.4087426522033597},{"inputs":[1.0,1.0,1.0,1.0,0.0,1.0,1.0,1.0,1.0,0.0,0.0,1.0,1.0,1.0,1.0],"weights":[{"value":0.9848419466530556},{"value":-0.8679750340050836},{"value":1.8219151547597787},{"value":0.45737717130807465},{"value":1.7814056671676122},{"value":-0.9330305277179172},{"value":-0.4209530390556179},{"value":-1.0978516156584137},{"value":0.21123386097104277},{"value":2.3917767986970055},{"value":-0.8732617300934082},{"value":-0.48116609328665844},{"value":-2.109965989976719},{"value":-1.6033124170117712},{"value":1.1829349310037418}],"bias":0.8869652797672254,"output":0.1225906348936707,"error":0.10756217113003742,"delta":-1.3282199475049214E-4,"sum":-1.968123029283385},{"inputs":[1.0,1.0,1.0,1.0,0.0,1.0,1.0,1.0,1.0,0.0,0.0,1.0,1.0,1.0,1.0],"weights":[{"value":1.1765265772942226},{"value":-1.3163979812609516},{"value":1.8806668439933472},{"value":0.8823283742782583},{"value":0.6796983749492918},{"value":1.1632989358626906},{"value":-2.38508168974561},{"value":-1.1108346075460405},{"value":-0.9159198620230817},{"value":-0.3683002560681713},{"value":0.7305019800323076},{"value":-0.3562823948700739},{"value":-1.011716634024824},{"value":-2.634606662208885},{"value":1.404253556759526}],"bias":1.026708681916769,"output":0.10004668266882359,"error":0.0900373439557873,"delta":-5.398045758352175E-5,"sum":-2.1967059886003604},{"inputs":[1.0,1.0,1.0,1.0,0.0,1.0,1.0,1.0,1.0,0.0,0.0,1.0,1.0,1.0,1.0],"weights":[{"value":0.9790195067240507},{"value":0.3968849462699625},{"value":1.125678392049307},{"value":0.4597932414951658},{"value":-4.46149169262655},{"value":-2.1266558357266425},{"value":-0.43246435014705986},{"value":-2.6604413284690636},{"value":1.0926887988538763},{"value":-1.6358356845353421},{"value":-0.19007990065188518},{"value":1.3342117504635107},{"value":-0.8196698826092048},{"value":0.33209055610666716},{"value":0.6800256980825632}],"bias":0.33907728626255884,"output":0.66793299538808,"error":0.22179850905998708,"delta":2.13490281371652E-4,"sum":0.6988510925267756},{"inputs":[1.0,1.0,1.0,1.0,0.0,1.0,1.0,1.0,1.0,0.0,0.0,1.0,1.0,1.0,1.0],"weights":[{"value":-0.8981276828479088},{"value":1.3975557735052413},{"value":0.7632474453135891},{"value":-2.2242656184025926},{"value":2.573708232468503},{"value":0.1617114719539421},{"value":-1.516665603489805},{"value":-0.4241405065642125},{"value":-0.25144885140175266},{"value":-1.7590953747781477},{"value":-0.572183959691952},{"value":0.8164292004989231},{"value":0.9574734256926433},{"value":-0.8901017466506785},{"value":0.6594080191177192}],"bias":0.5647142583653819,"output":0.29230967111942313,"error":0.20686472728947783,"delta":-2.7020513756284445E-6,"sum":-0.884192851575569},{"inputs":[1.0,1.0,1.0,1.0,0.0,1.0,1.0,1.0,1.0,0.0,0.0,1.0,1.0,1.0,1.0],"weights":[{"value":1.3832418058525362},{"value":0.46071975457890185},{"value":-0.5786661426668778},{"value":2.177876155129661},{"value":0.24065879099022947},{"value":0.15001123600705787},{"value":0.07440865930178157},{"value":-0.12771672824982458},{"value":-0.9438515714282123},{"value":-2.217990532868212},{"value":-0.7576683240617055},{"value":-1.6322120858703948},{"value":0.4691986133826972},{"value":0.8474475818387341},{"value":-0.4702796758240184}],"bias":0.24544514178214802,"output":0.8864495143515149,"error":0.1006567728574783,"delta":9.940228419365172E-5,"sum":2.054976628986931}],[{"inputs":[0.29127614697218995,0.4761774228246251,0.9296605516224613,0.8859658231444194,0.5794640963778178,0.13934341946403445,0.10452173476047603,0.09825527544740642,0.08651642310937735,0.6007863521485273,0.1225906348936707,0.10004668266882359,0.66793299538808,0.29230967111942313,0.8864495143515149],"weights":[{"value":-3.98786661031906},{"value":-1.7439260677414066},{"value":-1.6418351853944289},{"value":1.0090914301865366},{"value":0.4051343056329537},{"value":1.4243922143357515},{"value":2.4051819822509204},{"value":-3.2899681692269436},{"value":2.56080620768045},{"value":-2.7940185532141406},{"value":0.395007729079126},{"value":-1.4246983292956272},{"value":2.240039727690177},{"value":-2.3948233466684106},{"value":-0.28437175219097943}],"bias":-1.689998041727275,"output":0.006964782394582433,"error":0.0069162742007785475,"delta":-4.817034478968711E-5,"sum":-4.959899765240784},{"inputs":[0.29127614697218995,0.4761774228246251,0.9296605516224613,0.8859658231444194,0.5794640963778178,0.13934341946403445,0.10452173476047603,0.09825527544740642,0.08651642310937735,0.6007863521485273,0.1225906348936707,0.10004668266882359,0.66793299538808,0.29230967111942313,0.8864495143515149],"weights":[{"value":-1.7992853101862838},{"value":-0.668599316538967},{"value":-1.9038935915055142},{"value":-0.3998821496781869},{"value":2.670901298161992},{"value":-1.2999230266881527},{"value":-1.6419924379060704},{"value":0.3598423021222545},{"value":2.7774213986619687},{"value":-1.2619708171718362},{"value":-0.5174305234947537},{"value":1.642433869481315},{"value":-2.431346722957583},{"value":1.904834632994957},{"value":-4.027465380746402}],"bias":-1.2233571806547876,"output":3.3065629745416506E-4,"error":3.3054696386711896E-4,"delta":-1.0929743520701724E-7,"sum":-8.014100387368448},{"inputs":[0.29127614697218995,0.4761774228246251,0.9296605516224613,0.8859658231444194,0.5794640963778178,0.13934341946403445,0.10452173476047603,0.09825527544740642,0.08651642310937735,0.6007863521485273,0.1225906348936707,0.10004668266882359,0.66793299538808,0.29230967111942313,0.8864495143515149],"weights":[{"value":-2.016077735827635},{"value":-0.9463357060783344},{"value":-0.6524899968256962},{"value":-2.0444544432273286},{"value":-3.494896976349102},{"value":1.8889422178833386},{"value":-0.06932230618738228},{"value":-2.247781870150566},{"value":-1.388415088411011},{"value":4.769848868476051},{"value":-0.23431769039827177},{"value":0.6942687745194015},{"value":-2.0042610561519365},{"value":-1.3172182681864089},{"value":0.34705300263061495}],"bias":-0.8320054518569125,"output":0.007336516065016579,"error":0.007282691597044332,"delta":-5.342958389827699E-5,"sum":-4.9075276389250675},{"inputs":[0.29127614697218995,0.4761774228246251,0.9296605516224613,0.8859658231444194,0.5794640963778178,0.13934341946403445,0.10452173476047603,0.09825527544740642,0.08651642310937735,0.6007863521485273,0.1225906348936707,0.10004668266882359,0.66793299538808,0.29230967111942313,0.8864495143515149],"weights":[{"value":-2.2238431197652173},{"value":2.015554032479711},{"value":-0.2967510042947658},{"value":-1.2273575532939103},{"value":0.5972915730430053},{"value":2.408110430359876},{"value":-1.9741274516283782},{"value":3.912363432630567},{"value":-2.6469604677102616},{"value":-1.9238038390577066},{"value":-3.1530689399292697},{"value":-2.372058585027755},{"value":-0.5338259348666556},{"value":0.3722468354274866},{"value":-1.4748283468542374}],"bias":-0.6525775973687286,"output":0.012038773760277737,"error":0.011893841686626586,"delta":-1.4318726920585766E-4,"sum":-4.407510864740248},{"inputs":[0.29127614697218995,0.4761774228246251,0.9296605516224613,0.8859658231444194,0.5794640963778178,0.13934341946403445,0.10452173476047603,0.09825527544740642,0.08651642310937735,0.6007863521485273,0.1225906348936707,0.10004668266882359,0.66793299538808,0.29230967111942313,0.8864495143515149],"weights":[{"value":2.6830198573273365},{"value":-0.20078227780226182},{"value":-1.1127869912353847},{"value":-0.6580042968188149},{"value":1.581004919334123},{"value":-3.752391376964105},{"value":-2.328426201930379},{"value":-2.1113027470247085},{"value":-1.4865008608137669},{"value":-2.1131869122773432},{"value":0.9120560602664796},{"value":2.4052722482640116},{"value":0.3452222844804086},{"value":-3.703160960297205},{"value":-0.8815321068292069}],"bias":-0.8944694555075016,"output":0.01032919852246198,"error":0.010222506180345549,"delta":-1.055902957338837E-4,"sum":-4.562397671319371},{"inputs":[0.29127614697218995,0.4761774228246251,0.9296605516224613,0.8859658231444194,0.5794640963778178,0.13934341946403445,0.10452173476047603,0.09825527544740642,0.08651642310937735,0.6007863521485273,0.1225906348936707,0.10004668266882359,0.66793299538808,0.29230967111942313,0.8864495143515149],"weights":[{"value":-2.595038103586876},{"value":-0.3180463005586098},{"value":-0.8703214801947619},{"value":0.12890154784211763},{"value":-3.1263522080844424},{"value":-3.7766225824570197},{"value":-0.7931421304748031},{"value":3.2564685922432886},{"value":2.0403076297593077},{"value":1.3301814275393267},{"value":-1.372315059169269},{"value":-1.4617197832665412},{"value":-3.6238047935366073},{"value":0.39944992360627324},{"value":0.9617184199689259}],"bias":-0.17092841861373126,"output":0.009343366548048078,"error":0.009256068049596894,"delta":-8.648283658106023E-5,"sum":-4.663701357965091},{"inputs":[0.29127614697218995,0.4761774228246251,0.9296605516224613,0.8859658231444194,0.5794640963778178,0.13934341946403445,0.10452173476047603,0.09825527544740642,0.08651642310937735,0.6007863521485273,0.1225906348936707,0.10004668266882359,0.66793299538808,0.29230967111942313,0.8864495143515149],"weights":[{"value":2.642611850379992},{"value":-0.09576690774578797},{"value":-0.7249509545338544},{"value":-2.88160746787342},{"value":-2.311694110436094},{"value":-2.4070275478512118},{"value":3.1215715837950166},{"value":3.1882970649068256},{"value":1.0600118807332761},{"value":-0.3597613763997188},{"value":-1.04264647218391},{"value":-1.8085284624616804},{"value":2.165756625804911},{"value":-2.6598282779014917},{"value":-2.059730086847122}],"bias":-1.8128563511956197,"output":9.663230313838888E-4,"error":9.653892511829058E-4,"delta":-9.32877867668488E-7,"sum":-6.941045588410317},{"inputs":[0.29127614697218995,0.4761774228246251,0.9296605516224613,0.8859658231444194,0.5794640963778178,0.13934341946403445,0.10452173476047603,0.09825527544740642,0.08651642310937735,0.6007863521485273,0.1225906348936707,0.10004668266882359,0.66793299538808,0.29230967111942313,0.8864495143515149],"weights":[{"value":0.6393043835968463},{"value":0.2616070670759059},{"value":-1.6988775170130128},{"value":-3.9412214104661882},{"value":-2.7697040241096333},{"value":1.6589676996339704},{"value":-1.157418704636753},{"value":-0.8169055941426738},{"value":-0.7378940731794533},{"value":-1.0788088485996832},{"value":-0.15485803393187572},{"value":2.254186608369837},{"value":2.750695026245665},{"value":1.8312653004917738},{"value":-2.573234443852013}],"bias":-1.7650656726167884,"output":2.0052618078538582E-4,"error":2.0048597003620544E-4,"delta":-4.0202685872413576E-8,"sum":-8.514365195970079},{"inputs":[0.29127614697218995,0.4761774228246251,0.9296605516224613,0.8859658231444194,0.5794640963778178,0.13934341946403445,0.10452173476047603,0.09825527544740642,0.08651642310937735,0.6007863521485273,0.1225906348936707,0.10004668266882359,0.66793299538808,0.29230967111942313,0.8864495143515149],"weights":[{"value":3.534965402305393},{"value":1.1011232736074095},{"value":-0.6994493851262094},{"value":-1.3700338740067575},{"value":3.188107208890183},{"value":1.814230873513417},{"value":2.9908028369562807},{"value":-3.183874182007664},{"value":-3.878620960578497},{"value":0.3263835203174012},{"value":-1.5417217719520087},{"value":-3.898634445448625},{"value":-3.450949890816923},{"value":-1.809253206485463},{"value":-2.0430811111724334}],"bias":-1.4693802626438803,"output":0.006413851000887138,"error":0.006372713516225557,"delta":-4.087363496441029E-5,"sum":-5.042860900157743},{"inputs":[0.29127614697218995,0.4761774228246251,0.9296605516224613,0.8859658231444194,0.5794640963778178,0.13934341946403445,0.10452173476047603,0.09825527544740642,0.08651642310937735,0.6007863521485273,0.1225906348936707,0.10004668266882359,0.66793299538808,0.29230967111942313,0.8864495143515149],"weights":[{"value":-1.289080540459548},{"value":-0.9654489846758174},{"value":1.8448753708539103},{"value":2.615501547422917},{"value":-0.26167145525580243},{"value":-3.6384269980914223},{"value":-1.727497363087272},{"value":-3.7601429205320134},{"value":-2.217622283295523},{"value":0.9198270878757365},{"value":-5.053965913953841},{"value":-2.8726518255416185},{"value":1.3472964442350241},{"value":-1.654191900294224},{"value":1.9612257876469796}],"bias":0.35464242412663555,"output":0.9811268344562716,"error":0.018516969166087444,"delta":3.4947382443968313E-4,"sum":3.9509606415173675}]],"learningRate":0.5,"iterations":50000}